{
  "input_nodes": 5,
  "hidden_nodes": 4,
  "output_nodes": 2,
  "weights_ih": {
    "rows": 4,
    "cols": 5,
    "data": [
      [
        -0.7383195120615405,
        -0.656280649782989,
        -0.08295762549868835,
        -0.26825737653855297,
        -0.2586306425028173
      ],
      [
        -0.3931338052451885,
        -0.3060225736237028,
        -0.9529850301438714,
        -0.5247887652248964,
        -0.10224311776072081
      ],
      [
        -0.10776347289033827,
        0.9839212868114,
        -0.2122452454039272,
        -0.8904164814062265,
        0.38816591676979506
      ],
      [
        -0.19636062397229903,
        0.2154258013532231,
        0.2745877191609205,
        0.7335304965488034,
        -0.6625508461717611
      ]
    ]
  },
  "weights_ho": {
    "rows": 2,
    "cols": 4,
    "data": [
      [
        0.7262087260670613,
        0.5181122325160921,
        0.22793042989070988,
        -0.7364743959395805
      ],
      [
        -0.7233031690213281,
        0.10448326129081975,
        0.580830429147821,
        0.9337379192130726
      ]
    ]
  },
  "bias_h": {
    "rows": 4,
    "cols": 1,
    "data": [
      [
        -0.5431814122529
      ],
      [
        -0.02856238032917746
      ],
      [
        0.6603983814378189
      ],
      [
        -0.8168254497653411
      ]
    ]
  },
  "bias_o": {
    "rows": 2,
    "cols": 1,
    "data": [
      [
        0.13788040199092677
      ],
      [
        -0.46127277414389223
      ]
    ]
  },
  "learning_rate": 0.1,
  "activation_function": {}
}
